digraph Tree {
node [shape=box, fontname="helvetica"] ;
edge [fontname="helvetica"] ;
0 [label="x[27] <= 0.5\ngini = 0.909\nsamples = 478\nvalue = [13.0, 64.0, 30.0, 12.0, 13.0, 69.0, 31.0, 11.0, 9.0\n9.0, 12.0, 15.0, 64.0, 5.0, 13.0, 62.0, 17.0, 14.0\n15.0]"] ;
1 [label="x[10] <= 0.5\ngini = 0.324\nsamples = 64\nvalue = [13, 0, 0, 0, 0, 0, 0, 0, 0, 0, 0, 0, 0, 0\n0, 51, 0, 0, 0]"] ;
0 -> 1 [labeldistance=2.5, labelangle=45, headlabel="True"] ;
2 [label="gini = 0.0\nsamples = 13\nvalue = [13, 0, 0, 0, 0, 0, 0, 0, 0, 0, 0, 0, 0, 0\n0, 0, 0, 0, 0]"] ;
1 -> 2 ;
3 [label="gini = 0.0\nsamples = 51\nvalue = [0, 0, 0, 0, 0, 0, 0, 0, 0, 0, 0, 0, 0, 0\n0, 51, 0, 0, 0]"] ;
1 -> 3 ;
4 [label="x[13] <= 2.5\ngini = 0.902\nsamples = 414\nvalue = [0.0, 64.0, 30.0, 12.0, 13.0, 69.0, 31.0, 11.0, 9.0\n9.0, 12.0, 15.0, 64.0, 5.0, 13.0, 11.0, 17.0, 14.0\n15.0]"] ;
0 -> 4 [labeldistance=2.5, labelangle=-45, headlabel="False"] ;
5 [label="x[27] <= 1.5\ngini = 0.895\nsamples = 161\nvalue = [0, 0, 30, 0, 11, 0, 24, 11, 9, 9, 12, 0, 0\n5, 0, 11, 17, 7, 15]"] ;
4 -> 5 ;
6 [label="x[21] <= 2.5\ngini = 0.389\nsamples = 34\nvalue = [0, 0, 25, 0, 0, 0, 0, 0, 0, 9, 0, 0, 0, 0\n0, 0, 0, 0, 0]"] ;
5 -> 6 ;
7 [label="gini = 0.0\nsamples = 25\nvalue = [0, 0, 25, 0, 0, 0, 0, 0, 0, 0, 0, 0, 0, 0\n0, 0, 0, 0, 0]"] ;
6 -> 7 ;
8 [label="gini = 0.0\nsamples = 9\nvalue = [0, 0, 0, 0, 0, 0, 0, 0, 0, 9, 0, 0, 0, 0\n0, 0, 0, 0, 0]"] ;
6 -> 8 ;
9 [label="x[17] <= 2.0\ngini = 0.89\nsamples = 127\nvalue = [0, 0, 5, 0, 11, 0, 24, 11, 9, 0, 12, 0, 0, 5\n0, 11, 17, 7, 15]"] ;
5 -> 9 ;
10 [label="x[25] <= 2.5\ngini = 0.877\nsamples = 110\nvalue = [0.0, 0.0, 5.0, 0.0, 11.0, 0.0, 24.0, 11.0, 9.0, 0.0\n12.0, 0.0, 0.0, 5.0, 0.0, 11.0, 0.0, 7.0, 15.0]"] ;
9 -> 10 ;
11 [label="x[25] <= 1.5\ngini = 0.666\nsamples = 49\nvalue = [0, 0, 0, 0, 0, 0, 24, 11, 9, 0, 0, 0, 0, 5\n0, 0, 0, 0, 0]"] ;
10 -> 11 ;
12 [label="x[1] <= 1.5\ngini = 0.637\nsamples = 25\nvalue = [0, 0, 0, 0, 0, 0, 0, 11, 9, 0, 0, 0, 0, 5\n0, 0, 0, 0, 0]"] ;
11 -> 12 ;
13 [label="x[29] <= 0.5\ngini = 0.459\nsamples = 14\nvalue = [0, 0, 0, 0, 0, 0, 0, 0, 9, 0, 0, 0, 0, 5\n0, 0, 0, 0, 0]"] ;
12 -> 13 ;
14 [label="gini = 0.0\nsamples = 5\nvalue = [0, 0, 0, 0, 0, 0, 0, 0, 0, 0, 0, 0, 0, 5\n0, 0, 0, 0, 0]"] ;
13 -> 14 ;
15 [label="gini = 0.0\nsamples = 9\nvalue = [0, 0, 0, 0, 0, 0, 0, 0, 9, 0, 0, 0, 0, 0\n0, 0, 0, 0, 0]"] ;
13 -> 15 ;
16 [label="gini = 0.0\nsamples = 11\nvalue = [0, 0, 0, 0, 0, 0, 0, 11, 0, 0, 0, 0, 0, 0\n0, 0, 0, 0, 0]"] ;
12 -> 16 ;
17 [label="gini = 0.0\nsamples = 24\nvalue = [0, 0, 0, 0, 0, 0, 24, 0, 0, 0, 0, 0, 0, 0\n0, 0, 0, 0, 0]"] ;
11 -> 17 ;
18 [label="x[22] <= 1.5\ngini = 0.816\nsamples = 61\nvalue = [0, 0, 5, 0, 11, 0, 0, 0, 0, 0, 12, 0, 0, 0\n0, 11, 0, 7, 15]"] ;
10 -> 18 ;
19 [label="x[21] <= 1.5\ngini = 0.775\nsamples = 49\nvalue = [0, 0, 5, 0, 11, 0, 0, 0, 0, 0, 0, 0, 0, 0\n0, 11, 0, 7, 15]"] ;
18 -> 19 ;
20 [label="x[6] <= 1.5\ngini = 0.332\nsamples = 19\nvalue = [0, 0, 4, 0, 0, 0, 0, 0, 0, 0, 0, 0, 0, 0\n0, 0, 0, 0, 15]"] ;
19 -> 20 ;
21 [label="gini = 0.0\nsamples = 15\nvalue = [0, 0, 0, 0, 0, 0, 0, 0, 0, 0, 0, 0, 0, 0\n0, 0, 0, 0, 15]"] ;
20 -> 21 ;
22 [label="gini = 0.0\nsamples = 4\nvalue = [0, 0, 4, 0, 0, 0, 0, 0, 0, 0, 0, 0, 0, 0\n0, 0, 0, 0, 0]"] ;
20 -> 22 ;
23 [label="x[13] <= 1.5\ngini = 0.676\nsamples = 30\nvalue = [0, 0, 1, 0, 11, 0, 0, 0, 0, 0, 0, 0, 0, 0\n0, 11, 0, 7, 0]"] ;
19 -> 23 ;
24 [label="x[27] <= 3.0\ngini = 0.526\nsamples = 19\nvalue = [0, 0, 1, 0, 0, 0, 0, 0, 0, 0, 0, 0, 0, 0\n0, 11, 0, 7, 0]"] ;
23 -> 24 ;
25 [label="gini = 0.0\nsamples = 11\nvalue = [0, 0, 0, 0, 0, 0, 0, 0, 0, 0, 0, 0, 0, 0\n0, 11, 0, 0, 0]"] ;
24 -> 25 ;
26 [label="x[7] <= 1.5\ngini = 0.219\nsamples = 8\nvalue = [0, 0, 1, 0, 0, 0, 0, 0, 0, 0, 0, 0, 0, 0\n0, 0, 0, 7, 0]"] ;
24 -> 26 ;
27 [label="gini = 0.0\nsamples = 7\nvalue = [0, 0, 0, 0, 0, 0, 0, 0, 0, 0, 0, 0, 0, 0\n0, 0, 0, 7, 0]"] ;
26 -> 27 ;
28 [label="gini = 0.0\nsamples = 1\nvalue = [0, 0, 1, 0, 0, 0, 0, 0, 0, 0, 0, 0, 0, 0\n0, 0, 0, 0, 0]"] ;
26 -> 28 ;
29 [label="gini = 0.0\nsamples = 11\nvalue = [0, 0, 0, 0, 11, 0, 0, 0, 0, 0, 0, 0, 0, 0\n0, 0, 0, 0, 0]"] ;
23 -> 29 ;
30 [label="gini = 0.0\nsamples = 12\nvalue = [0, 0, 0, 0, 0, 0, 0, 0, 0, 0, 12, 0, 0, 0\n0, 0, 0, 0, 0]"] ;
18 -> 30 ;
31 [label="gini = 0.0\nsamples = 17\nvalue = [0, 0, 0, 0, 0, 0, 0, 0, 0, 0, 0, 0, 0, 0\n0, 0, 17, 0, 0]"] ;
9 -> 31 ;
32 [label="x[27] <= 2.5\ngini = 0.788\nsamples = 253\nvalue = [0.0, 64.0, 0.0, 12.0, 2.0, 69.0, 7.0, 0.0, 0.0, 0.0\n0.0, 15.0, 64.0, 0.0, 13.0, 0.0, 0.0, 7.0, 0.0]"] ;
4 -> 32 ;
33 [label="x[31] <= 1.5\ngini = 0.211\nsamples = 51\nvalue = [0, 0, 0, 0, 0, 1, 0, 0, 0, 0, 0, 0, 45, 0\n0, 0, 0, 5, 0]"] ;
32 -> 33 ;
34 [label="x[28] <= 2.5\ngini = 0.043\nsamples = 46\nvalue = [0, 0, 0, 0, 0, 1, 0, 0, 0, 0, 0, 0, 45, 0\n0, 0, 0, 0, 0]"] ;
33 -> 34 ;
35 [label="gini = 0.0\nsamples = 1\nvalue = [0, 0, 0, 0, 0, 1, 0, 0, 0, 0, 0, 0, 0, 0\n0, 0, 0, 0, 0]"] ;
34 -> 35 ;
36 [label="gini = 0.0\nsamples = 45\nvalue = [0, 0, 0, 0, 0, 0, 0, 0, 0, 0, 0, 0, 45, 0\n0, 0, 0, 0, 0]"] ;
34 -> 36 ;
37 [label="gini = 0.0\nsamples = 5\nvalue = [0, 0, 0, 0, 0, 0, 0, 0, 0, 0, 0, 0, 0, 0\n0, 0, 0, 5, 0]"] ;
33 -> 37 ;
38 [label="x[0] <= 5.5\ngini = 0.763\nsamples = 202\nvalue = [0.0, 64.0, 0.0, 12.0, 2.0, 68.0, 7.0, 0.0, 0.0, 0.0\n0.0, 15.0, 19.0, 0.0, 13.0, 0.0, 0.0, 2.0, 0.0]"] ;
32 -> 38 ;
39 [label="x[17] <= 1.5\ngini = 0.741\nsamples = 135\nvalue = [0, 16, 0, 10, 2, 62, 5, 0, 0, 0, 0, 10, 15\n0, 13, 0, 0, 2, 0]"] ;
38 -> 39 ;
40 [label="x[0] <= 3.5\ngini = 0.704\nsamples = 125\nvalue = [0, 16, 0, 10, 2, 62, 5, 0, 0, 0, 0, 0, 15, 0\n13, 0, 0, 2, 0]"] ;
39 -> 40 ;
41 [label="x[20] <= 2.0\ngini = 0.812\nsamples = 71\nvalue = [0.0, 16.0, 0.0, 7.0, 2.0, 19.0, 5.0, 0.0, 0.0, 0.0\n0.0, 0.0, 15.0, 0.0, 5.0, 0.0, 0.0, 2.0, 0.0]"] ;
40 -> 41 ;
42 [label="gini = 0.0\nsamples = 13\nvalue = [0, 0, 0, 0, 0, 13, 0, 0, 0, 0, 0, 0, 0, 0\n0, 0, 0, 0, 0]"] ;
41 -> 42 ;
43 [label="x[14] <= 2.5\ngini = 0.815\nsamples = 58\nvalue = [0.0, 16.0, 0.0, 7.0, 2.0, 6.0, 5.0, 0.0, 0.0, 0.0\n0.0, 0.0, 15.0, 0.0, 5.0, 0.0, 0.0, 2.0, 0.0]"] ;
41 -> 43 ;
44 [label="x[28] <= 2.5\ngini = 0.743\nsamples = 47\nvalue = [0.0, 16.0, 0.0, 0.0, 0.0, 6.0, 5.0, 0.0, 0.0, 0.0\n0.0, 0.0, 15.0, 0.0, 5.0, 0.0, 0.0, 0.0, 0.0]"] ;
43 -> 44 ;
45 [label="x[16] <= 1.5\ngini = 0.693\nsamples = 42\nvalue = [0, 16, 0, 0, 0, 6, 0, 0, 0, 0, 0, 0, 15, 0\n5, 0, 0, 0, 0]"] ;
44 -> 45 ;
46 [label="x[0] <= 1.5\ngini = 0.641\nsamples = 38\nvalue = [0, 16, 0, 0, 0, 6, 0, 0, 0, 0, 0, 0, 15, 0\n1, 0, 0, 0, 0]"] ;
45 -> 46 ;
47 [label="gini = 0.0\nsamples = 3\nvalue = [0, 0, 0, 0, 0, 3, 0, 0, 0, 0, 0, 0, 0, 0\n0, 0, 0, 0, 0]"] ;
46 -> 47 ;
48 [label="x[0] <= 2.5\ngini = 0.599\nsamples = 35\nvalue = [0, 16, 0, 0, 0, 3, 0, 0, 0, 0, 0, 0, 15, 0\n1, 0, 0, 0, 0]"] ;
46 -> 48 ;
49 [label="x[8] <= 1.5\ngini = 0.476\nsamples = 23\nvalue = [0, 14, 0, 0, 0, 0, 0, 0, 0, 0, 0, 0, 9, 0\n0, 0, 0, 0, 0]"] ;
48 -> 49 ;
50 [label="x[9] <= 2.0\ngini = 0.494\nsamples = 9\nvalue = [0, 4, 0, 0, 0, 0, 0, 0, 0, 0, 0, 0, 5, 0\n0, 0, 0, 0, 0]"] ;
49 -> 50 ;
51 [label="x[9] <= 0.5\ngini = 0.32\nsamples = 5\nvalue = [0, 1, 0, 0, 0, 0, 0, 0, 0, 0, 0, 0, 4, 0\n0, 0, 0, 0, 0]"] ;
50 -> 51 ;
52 [label="gini = 0.0\nsamples = 1\nvalue = [0, 1, 0, 0, 0, 0, 0, 0, 0, 0, 0, 0, 0, 0\n0, 0, 0, 0, 0]"] ;
51 -> 52 ;
53 [label="gini = 0.0\nsamples = 4\nvalue = [0, 0, 0, 0, 0, 0, 0, 0, 0, 0, 0, 0, 4, 0\n0, 0, 0, 0, 0]"] ;
51 -> 53 ;
54 [label="x[6] <= 1.5\ngini = 0.375\nsamples = 4\nvalue = [0, 3, 0, 0, 0, 0, 0, 0, 0, 0, 0, 0, 1, 0\n0, 0, 0, 0, 0]"] ;
50 -> 54 ;
55 [label="gini = 0.5\nsamples = 2\nvalue = [0, 1, 0, 0, 0, 0, 0, 0, 0, 0, 0, 0, 1, 0\n0, 0, 0, 0, 0]"] ;
54 -> 55 ;
56 [label="gini = 0.0\nsamples = 2\nvalue = [0, 2, 0, 0, 0, 0, 0, 0, 0, 0, 0, 0, 0, 0\n0, 0, 0, 0, 0]"] ;
54 -> 56 ;
57 [label="x[9] <= 0.5\ngini = 0.408\nsamples = 14\nvalue = [0, 10, 0, 0, 0, 0, 0, 0, 0, 0, 0, 0, 4, 0\n0, 0, 0, 0, 0]"] ;
49 -> 57 ;
58 [label="x[6] <= 2.5\ngini = 0.5\nsamples = 6\nvalue = [0, 3, 0, 0, 0, 0, 0, 0, 0, 0, 0, 0, 3, 0\n0, 0, 0, 0, 0]"] ;
57 -> 58 ;
59 [label="gini = 0.0\nsamples = 2\nvalue = [0, 0, 0, 0, 0, 0, 0, 0, 0, 0, 0, 0, 2, 0\n0, 0, 0, 0, 0]"] ;
58 -> 59 ;
60 [label="x[5] <= 3.5\ngini = 0.375\nsamples = 4\nvalue = [0, 3, 0, 0, 0, 0, 0, 0, 0, 0, 0, 0, 1, 0\n0, 0, 0, 0, 0]"] ;
58 -> 60 ;
61 [label="gini = 0.0\nsamples = 3\nvalue = [0, 3, 0, 0, 0, 0, 0, 0, 0, 0, 0, 0, 0, 0\n0, 0, 0, 0, 0]"] ;
60 -> 61 ;
62 [label="gini = 0.0\nsamples = 1\nvalue = [0, 0, 0, 0, 0, 0, 0, 0, 0, 0, 0, 0, 1, 0\n0, 0, 0, 0, 0]"] ;
60 -> 62 ;
63 [label="x[9] <= 2.0\ngini = 0.219\nsamples = 8\nvalue = [0, 7, 0, 0, 0, 0, 0, 0, 0, 0, 0, 0, 1, 0\n0, 0, 0, 0, 0]"] ;
57 -> 63 ;
64 [label="gini = 0.0\nsamples = 4\nvalue = [0, 4, 0, 0, 0, 0, 0, 0, 0, 0, 0, 0, 0, 0\n0, 0, 0, 0, 0]"] ;
63 -> 64 ;
65 [label="x[7] <= 1.5\ngini = 0.375\nsamples = 4\nvalue = [0, 3, 0, 0, 0, 0, 0, 0, 0, 0, 0, 0, 1, 0\n0, 0, 0, 0, 0]"] ;
63 -> 65 ;
66 [label="gini = 0.0\nsamples = 2\nvalue = [0, 2, 0, 0, 0, 0, 0, 0, 0, 0, 0, 0, 0, 0\n0, 0, 0, 0, 0]"] ;
65 -> 66 ;
67 [label="x[6] <= 2.5\ngini = 0.5\nsamples = 2\nvalue = [0, 1, 0, 0, 0, 0, 0, 0, 0, 0, 0, 0, 1, 0\n0, 0, 0, 0, 0]"] ;
65 -> 67 ;
68 [label="gini = 0.0\nsamples = 1\nvalue = [0, 0, 0, 0, 0, 0, 0, 0, 0, 0, 0, 0, 1, 0\n0, 0, 0, 0, 0]"] ;
67 -> 68 ;
69 [label="gini = 0.0\nsamples = 1\nvalue = [0, 1, 0, 0, 0, 0, 0, 0, 0, 0, 0, 0, 0, 0\n0, 0, 0, 0, 0]"] ;
67 -> 69 ;
70 [label="x[6] <= 3.5\ngini = 0.653\nsamples = 12\nvalue = [0, 2, 0, 0, 0, 3, 0, 0, 0, 0, 0, 0, 6, 0\n1, 0, 0, 0, 0]"] ;
48 -> 70 ;
71 [label="x[6] <= 1.5\ngini = 0.58\nsamples = 10\nvalue = [0, 2, 0, 0, 0, 1, 0, 0, 0, 0, 0, 0, 6, 0\n1, 0, 0, 0, 0]"] ;
70 -> 71 ;
72 [label="x[8] <= 1.5\ngini = 0.5\nsamples = 2\nvalue = [0, 1, 0, 0, 0, 1, 0, 0, 0, 0, 0, 0, 0, 0\n0, 0, 0, 0, 0]"] ;
71 -> 72 ;
73 [label="gini = 0.0\nsamples = 1\nvalue = [0, 1, 0, 0, 0, 0, 0, 0, 0, 0, 0, 0, 0, 0\n0, 0, 0, 0, 0]"] ;
72 -> 73 ;
74 [label="gini = 0.0\nsamples = 1\nvalue = [0, 0, 0, 0, 0, 1, 0, 0, 0, 0, 0, 0, 0, 0\n0, 0, 0, 0, 0]"] ;
72 -> 74 ;
75 [label="x[2] <= 1.5\ngini = 0.406\nsamples = 8\nvalue = [0, 1, 0, 0, 0, 0, 0, 0, 0, 0, 0, 0, 6, 0\n1, 0, 0, 0, 0]"] ;
71 -> 75 ;
76 [label="x[5] <= 1.5\ngini = 0.245\nsamples = 7\nvalue = [0, 1, 0, 0, 0, 0, 0, 0, 0, 0, 0, 0, 6, 0\n0, 0, 0, 0, 0]"] ;
75 -> 76 ;
77 [label="x[4] <= 1.5\ngini = 0.5\nsamples = 2\nvalue = [0, 1, 0, 0, 0, 0, 0, 0, 0, 0, 0, 0, 1, 0\n0, 0, 0, 0, 0]"] ;
76 -> 77 ;
78 [label="gini = 0.0\nsamples = 1\nvalue = [0, 0, 0, 0, 0, 0, 0, 0, 0, 0, 0, 0, 1, 0\n0, 0, 0, 0, 0]"] ;
77 -> 78 ;
79 [label="gini = 0.0\nsamples = 1\nvalue = [0, 1, 0, 0, 0, 0, 0, 0, 0, 0, 0, 0, 0, 0\n0, 0, 0, 0, 0]"] ;
77 -> 79 ;
80 [label="gini = 0.0\nsamples = 5\nvalue = [0, 0, 0, 0, 0, 0, 0, 0, 0, 0, 0, 0, 5, 0\n0, 0, 0, 0, 0]"] ;
76 -> 80 ;
81 [label="gini = 0.0\nsamples = 1\nvalue = [0, 0, 0, 0, 0, 0, 0, 0, 0, 0, 0, 0, 0, 0\n1, 0, 0, 0, 0]"] ;
75 -> 81 ;
82 [label="gini = 0.0\nsamples = 2\nvalue = [0, 0, 0, 0, 0, 2, 0, 0, 0, 0, 0, 0, 0, 0\n0, 0, 0, 0, 0]"] ;
70 -> 82 ;
83 [label="gini = 0.0\nsamples = 4\nvalue = [0, 0, 0, 0, 0, 0, 0, 0, 0, 0, 0, 0, 0, 0\n4, 0, 0, 0, 0]"] ;
45 -> 83 ;
84 [label="gini = 0.0\nsamples = 5\nvalue = [0, 0, 0, 0, 0, 0, 5, 0, 0, 0, 0, 0, 0, 0\n0, 0, 0, 0, 0]"] ;
44 -> 84 ;
85 [label="x[9] <= 2.0\ngini = 0.529\nsamples = 11\nvalue = [0, 0, 0, 7, 2, 0, 0, 0, 0, 0, 0, 0, 0, 0\n0, 0, 0, 2, 0]"] ;
43 -> 85 ;
86 [label="x[31] <= 1.5\ngini = 0.219\nsamples = 8\nvalue = [0, 0, 0, 7, 0, 0, 0, 0, 0, 0, 0, 0, 0, 0\n0, 0, 0, 1, 0]"] ;
85 -> 86 ;
87 [label="gini = 0.0\nsamples = 7\nvalue = [0, 0, 0, 7, 0, 0, 0, 0, 0, 0, 0, 0, 0, 0\n0, 0, 0, 0, 0]"] ;
86 -> 87 ;
88 [label="gini = 0.0\nsamples = 1\nvalue = [0, 0, 0, 0, 0, 0, 0, 0, 0, 0, 0, 0, 0, 0\n0, 0, 0, 1, 0]"] ;
86 -> 88 ;
89 [label="x[31] <= 1.5\ngini = 0.444\nsamples = 3\nvalue = [0, 0, 0, 0, 2, 0, 0, 0, 0, 0, 0, 0, 0, 0\n0, 0, 0, 1, 0]"] ;
85 -> 89 ;
90 [label="gini = 0.0\nsamples = 2\nvalue = [0, 0, 0, 0, 2, 0, 0, 0, 0, 0, 0, 0, 0, 0\n0, 0, 0, 0, 0]"] ;
89 -> 90 ;
91 [label="gini = 0.0\nsamples = 1\nvalue = [0, 0, 0, 0, 0, 0, 0, 0, 0, 0, 0, 0, 0, 0\n0, 0, 0, 1, 0]"] ;
89 -> 91 ;
92 [label="x[2] <= 1.5\ngini = 0.341\nsamples = 54\nvalue = [0, 0, 0, 3, 0, 43, 0, 0, 0, 0, 0, 0, 0, 0\n8, 0, 0, 0, 0]"] ;
40 -> 92 ;
93 [label="gini = 0.0\nsamples = 40\nvalue = [0, 0, 0, 0, 0, 40, 0, 0, 0, 0, 0, 0, 0, 0\n0, 0, 0, 0, 0]"] ;
92 -> 93 ;
94 [label="x[12] <= 2.5\ngini = 0.582\nsamples = 14\nvalue = [0, 0, 0, 3, 0, 3, 0, 0, 0, 0, 0, 0, 0, 0\n8, 0, 0, 0, 0]"] ;
92 -> 94 ;
95 [label="x[9] <= 2.0\ngini = 0.397\nsamples = 11\nvalue = [0, 0, 0, 0, 0, 3, 0, 0, 0, 0, 0, 0, 0, 0\n8, 0, 0, 0, 0]"] ;
94 -> 95 ;
96 [label="gini = 0.0\nsamples = 4\nvalue = [0, 0, 0, 0, 0, 0, 0, 0, 0, 0, 0, 0, 0, 0\n4, 0, 0, 0, 0]"] ;
95 -> 96 ;
97 [label="x[6] <= 3.5\ngini = 0.49\nsamples = 7\nvalue = [0, 0, 0, 0, 0, 3, 0, 0, 0, 0, 0, 0, 0, 0\n4, 0, 0, 0, 0]"] ;
95 -> 97 ;
98 [label="x[6] <= 2.5\ngini = 0.375\nsamples = 4\nvalue = [0, 0, 0, 0, 0, 3, 0, 0, 0, 0, 0, 0, 0, 0\n1, 0, 0, 0, 0]"] ;
97 -> 98 ;
99 [label="x[4] <= 1.5\ngini = 0.5\nsamples = 2\nvalue = [0, 0, 0, 0, 0, 1, 0, 0, 0, 0, 0, 0, 0, 0\n1, 0, 0, 0, 0]"] ;
98 -> 99 ;
100 [label="gini = 0.0\nsamples = 1\nvalue = [0, 0, 0, 0, 0, 1, 0, 0, 0, 0, 0, 0, 0, 0\n0, 0, 0, 0, 0]"] ;
99 -> 100 ;
101 [label="gini = 0.0\nsamples = 1\nvalue = [0, 0, 0, 0, 0, 0, 0, 0, 0, 0, 0, 0, 0, 0\n1, 0, 0, 0, 0]"] ;
99 -> 101 ;
102 [label="gini = 0.0\nsamples = 2\nvalue = [0, 0, 0, 0, 0, 2, 0, 0, 0, 0, 0, 0, 0, 0\n0, 0, 0, 0, 0]"] ;
98 -> 102 ;
103 [label="gini = 0.0\nsamples = 3\nvalue = [0, 0, 0, 0, 0, 0, 0, 0, 0, 0, 0, 0, 0, 0\n3, 0, 0, 0, 0]"] ;
97 -> 103 ;
104 [label="gini = 0.0\nsamples = 3\nvalue = [0, 0, 0, 3, 0, 0, 0, 0, 0, 0, 0, 0, 0, 0\n0, 0, 0, 0, 0]"] ;
94 -> 104 ;
105 [label="gini = 0.0\nsamples = 10\nvalue = [0, 0, 0, 0, 0, 0, 0, 0, 0, 0, 0, 10, 0, 0\n0, 0, 0, 0, 0]"] ;
39 -> 105 ;
106 [label="x[18] <= 1.5\ngini = 0.468\nsamples = 67\nvalue = [0, 48, 0, 2, 0, 6, 2, 0, 0, 0, 0, 5, 4, 0\n0, 0, 0, 0, 0]"] ;
38 -> 106 ;
107 [label="x[4] <= 1.5\ngini = 0.494\nsamples = 9\nvalue = [0, 0, 0, 0, 0, 6, 2, 0, 0, 0, 0, 0, 1, 0\n0, 0, 0, 0, 0]"] ;
106 -> 107 ;
108 [label="x[28] <= 2.5\ngini = 0.444\nsamples = 3\nvalue = [0, 0, 0, 0, 0, 0, 2, 0, 0, 0, 0, 0, 1, 0\n0, 0, 0, 0, 0]"] ;
107 -> 108 ;
109 [label="gini = 0.0\nsamples = 1\nvalue = [0, 0, 0, 0, 0, 0, 0, 0, 0, 0, 0, 0, 1, 0\n0, 0, 0, 0, 0]"] ;
108 -> 109 ;
110 [label="gini = 0.0\nsamples = 2\nvalue = [0, 0, 0, 0, 0, 0, 2, 0, 0, 0, 0, 0, 0, 0\n0, 0, 0, 0, 0]"] ;
108 -> 110 ;
111 [label="gini = 0.0\nsamples = 6\nvalue = [0, 0, 0, 0, 0, 6, 0, 0, 0, 0, 0, 0, 0, 0\n0, 0, 0, 0, 0]"] ;
107 -> 111 ;
112 [label="x[17] <= 1.5\ngini = 0.304\nsamples = 58\nvalue = [0, 48, 0, 2, 0, 0, 0, 0, 0, 0, 0, 5, 3, 0\n0, 0, 0, 0, 0]"] ;
106 -> 112 ;
113 [label="x[14] <= 2.5\ngini = 0.175\nsamples = 53\nvalue = [0, 48, 0, 2, 0, 0, 0, 0, 0, 0, 0, 0, 3, 0\n0, 0, 0, 0, 0]"] ;
112 -> 113 ;
114 [label="x[3] <= 2.0\ngini = 0.111\nsamples = 51\nvalue = [0, 48, 0, 0, 0, 0, 0, 0, 0, 0, 0, 0, 3, 0\n0, 0, 0, 0, 0]"] ;
113 -> 114 ;
115 [label="gini = 0.0\nsamples = 32\nvalue = [0, 32, 0, 0, 0, 0, 0, 0, 0, 0, 0, 0, 0, 0\n0, 0, 0, 0, 0]"] ;
114 -> 115 ;
116 [label="x[9] <= 2.0\ngini = 0.266\nsamples = 19\nvalue = [0, 16, 0, 0, 0, 0, 0, 0, 0, 0, 0, 0, 3, 0\n0, 0, 0, 0, 0]"] ;
114 -> 116 ;
117 [label="x[2] <= 2.0\ngini = 0.124\nsamples = 15\nvalue = [0, 14, 0, 0, 0, 0, 0, 0, 0, 0, 0, 0, 1, 0\n0, 0, 0, 0, 0]"] ;
116 -> 117 ;
118 [label="gini = 0.0\nsamples = 13\nvalue = [0, 13, 0, 0, 0, 0, 0, 0, 0, 0, 0, 0, 0, 0\n0, 0, 0, 0, 0]"] ;
117 -> 118 ;
119 [label="x[9] <= 0.5\ngini = 0.5\nsamples = 2\nvalue = [0, 1, 0, 0, 0, 0, 0, 0, 0, 0, 0, 0, 1, 0\n0, 0, 0, 0, 0]"] ;
117 -> 119 ;
120 [label="gini = 0.0\nsamples = 1\nvalue = [0, 1, 0, 0, 0, 0, 0, 0, 0, 0, 0, 0, 0, 0\n0, 0, 0, 0, 0]"] ;
119 -> 120 ;
121 [label="gini = 0.0\nsamples = 1\nvalue = [0, 0, 0, 0, 0, 0, 0, 0, 0, 0, 0, 0, 1, 0\n0, 0, 0, 0, 0]"] ;
119 -> 121 ;
122 [label="x[8] <= 1.5\ngini = 0.5\nsamples = 4\nvalue = [0, 2, 0, 0, 0, 0, 0, 0, 0, 0, 0, 0, 2, 0\n0, 0, 0, 0, 0]"] ;
116 -> 122 ;
123 [label="gini = 0.0\nsamples = 1\nvalue = [0, 0, 0, 0, 0, 0, 0, 0, 0, 0, 0, 0, 1, 0\n0, 0, 0, 0, 0]"] ;
122 -> 123 ;
124 [label="x[6] <= 2.5\ngini = 0.444\nsamples = 3\nvalue = [0, 2, 0, 0, 0, 0, 0, 0, 0, 0, 0, 0, 1, 0\n0, 0, 0, 0, 0]"] ;
122 -> 124 ;
125 [label="gini = 0.0\nsamples = 1\nvalue = [0, 1, 0, 0, 0, 0, 0, 0, 0, 0, 0, 0, 0, 0\n0, 0, 0, 0, 0]"] ;
124 -> 125 ;
126 [label="x[5] <= 2.5\ngini = 0.5\nsamples = 2\nvalue = [0, 1, 0, 0, 0, 0, 0, 0, 0, 0, 0, 0, 1, 0\n0, 0, 0, 0, 0]"] ;
124 -> 126 ;
127 [label="gini = 0.0\nsamples = 1\nvalue = [0, 0, 0, 0, 0, 0, 0, 0, 0, 0, 0, 0, 1, 0\n0, 0, 0, 0, 0]"] ;
126 -> 127 ;
128 [label="gini = 0.0\nsamples = 1\nvalue = [0, 1, 0, 0, 0, 0, 0, 0, 0, 0, 0, 0, 0, 0\n0, 0, 0, 0, 0]"] ;
126 -> 128 ;
129 [label="gini = 0.0\nsamples = 2\nvalue = [0, 0, 0, 2, 0, 0, 0, 0, 0, 0, 0, 0, 0, 0\n0, 0, 0, 0, 0]"] ;
113 -> 129 ;
130 [label="gini = 0.0\nsamples = 5\nvalue = [0, 0, 0, 0, 0, 0, 0, 0, 0, 0, 0, 5, 0, 0\n0, 0, 0, 0, 0]"] ;
112 -> 130 ;
}